<?xml version="1.0"?>
<opencv_storage>
<cascade>
  <stageType>BOOST</stageType>
  <featureType>HAAR</featureType>
  <height>24</height>
  <width>24</width>
  <stageParams>
    <boostType>GAB</boostType>
    <minHitRate>9.9500000476837158e-01</minHitRate>
    <maxFalseAlarm>5.0000000000000000e-01</maxFalseAlarm>
    <weightTrimRate>9.4999999999999996e-01</weightTrimRate>
    <maxDepth>1</maxDepth>
    <maxWeakCount>100</maxWeakCount></stageParams>
  <featureParams>
    <maxCatCount>0</maxCatCount>
    <featSize>1</featSize>
    <mode>BASIC</mode></featureParams>
  <stageNum>16</stageNum>
  <stages>
    <!-- stage 0 -->
    <_>
      <maxWeakCount>2</maxWeakCount>
      <stageThreshold>-5.0357282161712646e-03</stageThreshold>
      <weakClassifiers>
        <_>
          <internalNodes>
            0 -1 15 -2.9437718912959099e-03</internalNodes>
          <leafValues>
            8.4313726425170898e-01 -8.7755101919174194e-01</leafValues></_>
        <_>
          <internalNodes>
            0 -1 9 -1.7942017875611782e-03</internalNodes>
          <leafValues>
            8.7251532077789307e-01 -7.9761922359466553e-01</leafValues></_></weakClassifiers></_>
    <!-- stage 1 -->
    <_>
      <maxWeakCount>2</maxWeakCount>
      <stageThreshold>1.7369444668292999e-01</stageThreshold>
      <weakClassifiers>
        <_>
          <internalNodes>
            0 -1 35 -7.1923644281923771e-04</internalNodes>
          <leafValues>
            9.0243899822235107e-01 -6.2711864709854126e-01</leafValues></_>
        <_>
          <internalNodes>
            0 -1 5 5.9718354605138302e-03</internalNodes>
          <leafValues>
            -7.2874456644058228e-01 8.7464356422424316e-01</leafValues></_></weakClassifiers></_>
    <!-- stage 2 -->
    <_>
      <maxWeakCount>3</maxWeakCount>
      <stageThreshold>-1.2186558544635773e-01</stageThreshold>
      <weakClassifiers>
        <_>
          <internalNodes>
            0 -1 22 -4.4084489345550537e-03</internalNodes>
          <leafValues>
            9.4444441795349121e-01 -5.3125000000000000e-01</leafValues></_>
        <_>
          <internalNodes>
            0 -1 23 -2.8512842953205109e-02</internalNodes>
          <leafValues>
            9.2395430803298950e-01 -5.2599889039993286e-01</leafValues></_>
        <_>
          <internalNodes>
            0 -1 29 -2.5783628225326538e-03</internalNodes>
          <leafValues>
            9.3538331985473633e-01 -4.9079391360282898e-01</leafValues></_></weakClassifiers></_>
    <!-- stage 3 -->
    <_>
      <maxWeakCount>3</maxWeakCount>
      <stageThreshold>-4.8603147268295288e-01</stageThreshold>
      <weakClassifiers>
        <_>
          <internalNodes>
            0 -1 17 -6.2143720686435699e-02</internalNodes>
          <leafValues>
            1. -5.6250000000000000e-01</leafValues></_>
        <_>
          <internalNodes>
            0 -1 32 -1.2243144214153290e-02</internalNodes>
          <leafValues>
            8.4970861673355103e-01 -4.5716124773025513e-01</leafValues></_>
        <_>
          <internalNodes>
            0 -1 1 9.4457641243934631e-03</internalNodes>
          <leafValues>
            5.3362977504730225e-01 -8.2760399580001831e-01</leafValues></_></weakClassifiers></_>
    <!-- stage 4 -->
    <_>
      <maxWeakCount>3</maxWeakCount>
      <stageThreshold>-4.3356868624687195e-01</stageThreshold>
      <weakClassifiers>
        <_>
          <internalNodes>
            0 -1 14 -8.8583201169967651e-02</internalNodes>
          <leafValues>
            1. -5.8730161190032959e-01</leafValues></_>
        <_>
          <internalNodes>
            0 -1 32 -1.2343815527856350e-02</internalNodes>
          <leafValues>
            9.5987373590469360e-01 -4.6870678663253784e-01</leafValues></_>
        <_>
          <internalNodes>
            0 -1 2 5.7014161720871925e-03</internalNodes>
          <leafValues>
            6.2243968248367310e-01 -8.9050942659378052e-01</leafValues></_></weakClassifiers></_>
    <!-- stage 5 -->
    <_>
      <maxWeakCount>2</maxWeakCount>
      <stageThreshold>-9.1737769544124603e-02</stageThreshold>
      <weakClassifiers>
        <_>
          <internalNodes>
            0 -1 0 -2.3251265287399292e-02</internalNodes>
          <leafValues>
            -9.4444441795349121e-01 5.3125000000000000e-01</leafValues></_>
        <_>
          <internalNodes>
            0 -1 3 2.5848494842648506e-03</internalNodes>
          <leafValues>
            -6.2298774719238281e-01 9.0165179967880249e-01</leafValues></_></weakClassifiers></_>
    <!-- stage 6 -->
    <_>
      <maxWeakCount>3</maxWeakCount>
      <stageThreshold>-4.3686988949775696e-01</stageThreshold>
      <weakClassifiers>
        <_>
          <internalNodes>
            0 -1 18 -1.7387460917234421e-02</internalNodes>
          <leafValues>
            8.4615385532379150e-01 -5.4098361730575562e-01</leafValues></_>
        <_>
          <internalNodes>
            0 -1 32 -1.1589003726840019e-02</internalNodes>
          <leafValues>
            8.5021167993545532e-01 -4.9809613823890686e-01</leafValues></_>
        <_>
          <internalNodes>
            0 -1 21 1.7022371757775545e-03</internalNodes>
          <leafValues>
            -7.4609792232513428e-01 6.2111634016036987e-01</leafValues></_></weakClassifiers></_>
    <!-- stage 7 -->
    <_>
      <maxWeakCount>2</maxWeakCount>
      <stageThreshold>8.8929660618305206e-02</stageThreshold>
      <weakClassifiers>
        <_>
          <internalNodes>
            0 -1 16 1.8024714663624763e-03</internalNodes>
          <leafValues>
            -8.9999997615814209e-01 6.0000002384185791e-01</leafValues></_>
        <_>
          <internalNodes>
            0 -1 33 -1.3895466923713684e-02</internalNodes>
          <leafValues>
            1. -5.1107037067413330e-01</leafValues></_></weakClassifiers></_>
    <!-- stage 8 -->
    <_>
      <maxWeakCount>2</maxWeakCount>
      <stageThreshold>7.2563871741294861e-02</stageThreshold>
      <weakClassifiers>
        <_>
          <internalNodes>
            0 -1 10 8.9574176818132401e-03</internalNodes>
          <leafValues>
            -4.2857143282890320e-01 1.</leafValues></_>
        <_>
          <internalNodes>
            0 -1 26 -3.0063921585679054e-03</internalNodes>
          <leafValues>
            -9.2743611335754395e-01 5.1772642135620117e-01</leafValues></_></weakClassifiers></_>
    <!-- stage 9 -->
    <_>
      <maxWeakCount>3</maxWeakCount>
      <stageThreshold>-9.4898596405982971e-02</stageThreshold>
      <weakClassifiers>
        <_>
          <internalNodes>
            0 -1 30 -2.0879935473203659e-02</internalNodes>
          <leafValues>
            9.4285714626312256e-01 -5.0769233703613281e-01</leafValues></_>
        <_>
          <internalNodes>
            0 -1 25 3.5554093774408102e-03</internalNodes>
          <leafValues>
            -4.7041013836860657e-01 9.1952705383300781e-01</leafValues></_>
        <_>
          <internalNodes>
            0 -1 12 -8.6241699755191803e-03</internalNodes>
          <leafValues>
            9.2755329608917236e-01 -5.0673335790634155e-01</leafValues></_></weakClassifiers></_>
    <!-- stage 10 -->
    <_>
      <maxWeakCount>2</maxWeakCount>
      <stageThreshold>-2.2404974699020386e-01</stageThreshold>
      <weakClassifiers>
        <_>
          <internalNodes>
            0 -1 6 -7.3248478583991528e-03</internalNodes>
          <leafValues>
            6.9565218687057495e-01 -5.9259259700775146e-01</leafValues></_>
        <_>
          <internalNodes>
            0 -1 4 -9.4690555706620216e-03</internalNodes>
          <leafValues>
            -9.1970193386077881e-01 4.6619114279747009e-01</leafValues></_></weakClassifiers></_>
    <!-- stage 11 -->
    <_>
      <maxWeakCount>3</maxWeakCount>
      <stageThreshold>-6.2502229213714600e-01</stageThreshold>
      <weakClassifiers>
        <_>
          <internalNodes>
            0 -1 13 -5.4191291332244873e-02</internalNodes>
          <leafValues>
            9.4594591856002808e-01 -5.5555558204650879e-01</leafValues></_>
        <_>
          <internalNodes>
            0 -1 31 -5.8185383677482605e-03</internalNodes>
          <leafValues>
            7.9900562763214111e-01 -5.6525886058807373e-01</leafValues></_>
        <_>
          <internalNodes>
            0 -1 28 2.8594002127647400e-02</internalNodes>
          <leafValues>
            4.9579212069511414e-01 -9.5162594318389893e-01</leafValues></_></weakClassifiers></_>
    <!-- stage 12 -->
    <_>
      <maxWeakCount>2</maxWeakCount>
      <stageThreshold>-8.2166276872158051e-02</stageThreshold>
      <weakClassifiers>
        <_>
          <internalNodes>
            0 -1 8 5.8131171390414238e-03</internalNodes>
          <leafValues>
            6.0655736923217773e-01 -9.4871795177459717e-01</leafValues></_>
        <_>
          <internalNodes>
            0 -1 11 3.6987373605370522e-03</internalNodes>
          <leafValues>
            -6.4338165521621704e-01 8.6655169725418091e-01</leafValues></_></weakClassifiers></_>
    <!-- stage 13 -->
    <_>
      <maxWeakCount>2</maxWeakCount>
      <stageThreshold>4.8751752823591232e-02</stageThreshold>
      <weakClassifiers>
        <_>
          <internalNodes>
            0 -1 19 -7.4455350637435913e-02</internalNodes>
          <leafValues>
            8.8888889551162720e-01 -5.0000000000000000e-01</leafValues></_>
        <_>
          <internalNodes>
            0 -1 27 -5.7664103806018829e-02</internalNodes>
          <leafValues>
            -8.4013712406158447e-01 5.7558572292327881e-01</leafValues></_></weakClassifiers></_>
    <!-- stage 14 -->
    <_>
      <maxWeakCount>2</maxWeakCount>
      <stageThreshold>3.5406842827796936e-02</stageThreshold>
      <weakClassifiers>
        <_>
          <internalNodes>
            0 -1 20 2.2208176553249359e-02</internalNodes>
          <leafValues>
            -4.4927537441253662e-01 1.</leafValues></_>
        <_>
          <internalNodes>
            0 -1 7 -7.1370646357536316e-02</internalNodes>
          <leafValues>
            -9.2089587450027466e-01 4.8468220233917236e-01</leafValues></_></weakClassifiers></_>
    <!-- stage 15 -->
    <_>
      <maxWeakCount>2</maxWeakCount>
      <stageThreshold>1.8073545396327972e-01</stageThreshold>
      <weakClassifiers>
        <_>
          <internalNodes>
            0 -1 24 -2.8570124879479408e-02</internalNodes>
          <leafValues>
            8.8235294818878174e-01 -4.5454546809196472e-01</leafValues></_>
        <_>
          <internalNodes>
            0 -1 34 -5.3601367399096489e-03</internalNodes>
          <leafValues>
            6.7984122037887573e-01 -7.0161747932434082e-01</leafValues></_></weakClassifiers></_></stages>
  <features>
    <_>
      <rects>
        <_>
          0 3 5 18 -1.</_>
        <_>
          0 12 5 9 2.</_></rects>
      <tilted>0</tilted></_>
    <_>
      <rects>
        <_>
          0 4 2 15 -1.</_>
        <_>
          0 9 2 5 3.</_></rects>
      <tilted>0</tilted></_>
    <_>
      <rects>
        <_>
          0 8 2 14 -1.</_>
        <_>
          0 15 2 7 2.</_></rects>
      <tilted>0</tilted></_>
    <_>
      <rects>
        <_>
          0 15 3 4 -1.</_>
        <_>
          1 15 1 4 3.</_></rects>
      <tilted>0</tilted></_>
    <_>
      <rects>
        <_>
          0 15 10 7 -1.</_>
        <_>
          5 15 5 7 2.</_></rects>
      <tilted>0</tilted></_>
    <_>
      <rects>
        <_>
          1 5 3 9 -1.</_>
        <_>
          2 5 1 9 3.</_></rects>
      <tilted>0</tilted></_>
    <_>
      <rects>
        <_>
          2 5 2 15 -1.</_>
        <_>
          3 5 1 15 2.</_></rects>
      <tilted>0</tilted></_>
    <_>
      <rects>
        <_>
          2 5 21 15 -1.</_>
        <_>
          9 5 7 15 3.</_></rects>
      <tilted>0</tilted></_>
    <_>
      <rects>
        <_>
          2 15 6 4 -1.</_>
        <_>
          5 15 3 4 2.</_></rects>
      <tilted>0</tilted></_>
    <_>
      <rects>
        <_>
          3 15 2 8 -1.</_>
        <_>
          3 15 1 4 2.</_>
        <_>
          4 19 1 4 2.</_></rects>
      <tilted>0</tilted></_>
    <_>
      <rects>
        <_>
          3 17 2 3 -1.</_>
        <_>
          4 17 1 3 2.</_></rects>
      <tilted>0</tilted></_>
    <_>
      <rects>
        <_>
          3 18 2 2 -1.</_>
        <_>
          4 18 1 2 2.</_></rects>
      <tilted>0</tilted></_>
    <_>
      <rects>
        <_>
          4 0 3 11 -1.</_>
        <_>
          5 0 1 11 3.</_></rects>
      <tilted>0</tilted></_>
    <_>
      <rects>
        <_>
          4 1 4 22 -1.</_>
        <_>
          6 1 2 22 2.</_></rects>
      <tilted>0</tilted></_>
    <_>
      <rects>
        <_>
          4 1 6 23 -1.</_>
        <_>
          6 1 2 23 3.</_></rects>
      <tilted>0</tilted></_>
    <_>
      <rects>
        <_>
          4 2 4 6 -1.</_>
        <_>
          4 2 2 3 2.</_>
        <_>
          6 5 2 3 2.</_></rects>
      <tilted>0</tilted></_>
    <_>
      <rects>
        <_>
          4 3 3 6 -1.</_>
        <_>
          4 6 3 3 2.</_></rects>
      <tilted>0</tilted></_>
    <_>
      <rects>
        <_>
          4 4 6 11 -1.</_>
        <_>
          6 4 2 11 3.</_></rects>
      <tilted>0</tilted></_>
    <_>
      <rects>
        <_>
          4 6 6 3 -1.</_>
        <_>
          6 6 2 3 3.</_></rects>
      <tilted>0</tilted></_>
    <_>
      <rects>
        <_>
          4 8 6 12 -1.</_>
        <_>
          6 8 2 12 3.</_></rects>
      <tilted>0</tilted></_>
    <_>
      <rects>
        <_>
          4 10 3 7 -1.</_>
        <_>
          5 10 1 7 3.</_></rects>
      <tilted>0</tilted></_>
    <_>
      <rects>
        <_>
          4 14 8 10 -1.</_>
        <_>
          4 14 4 5 2.</_>
        <_>
          8 19 4 5 2.</_></rects>
      <tilted>0</tilted></_>
    <_>
      <rects>
        <_>
          4 19 2 4 -1.</_>
        <_>
          4 21 2 2 2.</_></rects>
      <tilted>0</tilted></_>
    <_>
      <rects>
        <_>
          5 1 19 6 -1.</_>
        <_>
          5 3 19 2 3.</_></rects>
      <tilted>0</tilted></_>
    <_>
      <rects>
        <_>
          5 5 3 18 -1.</_>
        <_>
          6 5 1 18 3.</_></rects>
      <tilted>0</tilted></_>
    <_>
      <rects>
        <_>
          5 18 3 4 -1.</_>
        <_>
          6 18 1 4 3.</_></rects>
      <tilted>0</tilted></_>
    <_>
      <rects>
        <_>
          6 13 2 6 -1.</_>
        <_>
          6 15 2 2 3.</_></rects>
      <tilted>0</tilted></_>
    <_>
      <rects>
        <_>
          10 2 9 22 -1.</_>
        <_>
          10 13 9 11 2.</_></rects>
      <tilted>0</tilted></_>
    <_>
      <rects>
        <_>
          11 4 6 18 -1.</_>
        <_>
          11 13 6 9 2.</_></rects>
      <tilted>0</tilted></_>
    <_>
      <rects>
        <_>
          11 9 3 1 -1.</_>
        <_>
          12 9 1 1 3.</_></rects>
      <tilted>0</tilted></_>
    <_>
      <rects>
        <_>
          16 3 3 20 -1.</_>
        <_>
          17 3 1 20 3.</_></rects>
      <tilted>0</tilted></_>
    <_>
      <rects>
        <_>
          18 12 3 5 -1.</_>
        <_>
          19 12 1 5 3.</_></rects>
      <tilted>0</tilted></_>
    <_>
      <rects>
        <_>
          18 12 3 6 -1.</_>
        <_>
          19 12 1 6 3.</_></rects>
      <tilted>0</tilted></_>
    <_>
      <rects>
        <_>
          18 14 3 5 -1.</_>
        <_>
          19 14 1 5 3.</_></rects>
      <tilted>0</tilted></_>
    <_>
      <rects>
        <_>
          19 0 2 9 -1.</_>
        <_>
          19 3 2 3 3.</_></rects>
      <tilted>0</tilted></_>
    <_>
      <rects>
        <_>
          21 3 3 2 -1.</_>
        <_>
          22 3 1 2 3.</_></rects>
      <tilted>0</tilted></_></features></cascade>
</opencv_storage>
